{
  "HYDROGEL_PACK|200": {
    "features": [
      "cum_Mark 38",
      "cum_Mark 22",
      "cum_Mark 14",
      "vfe_mid",
      "ret_50",
      "nf_Mark 22_W200",
      "rvol_100",
      "nf_Mark 38_W200"
    ],
    "means": [
      29.35055,
      1.2342,
      -30.58475,
      5251.892025,
      0.1345,
      0.0599,
      2.1547325374780018,
      0.75155
    ],
    "stds": [
      55.45166241699525,
      3.6443861440973526,
      57.552220787321524,
      16.225487016783994,
      13.083677226841365,
      1.370040872653105,
      0.19038593616159558,
      11.1829120813796
    ],
    "weights": [
      0.20452134173700479,
      0.04055578896143361,
      -0.19962477898155043,
      -1.8867114412811945,
      -3.682327358793502,
      -2.7705294630152415,
      0.8185510966413584,
      0.2148753860917854
    ],
    "intercept": 0.5869499999999878,
    "ridge_oos_r2": 0.0034572178912763984,
    "ridge_oos_sharpe": 0.7373541153210268,
    "ridge_oos_mean_pnl": 1.0965816326530613,
    "lgbm_avg_sharpe": -1.1564050343148105,
    "lgbm_avg_mean_pnl": -1.718752380952381,
    "feature_importance_signed": {
      "cum_Mark 38": 0.20452134173700479,
      "cum_Mark 22": 0.04055578896143361,
      "cum_Mark 14": -0.19962477898155043,
      "vfe_mid": -1.8867114412811945,
      "ret_50": -3.682327358793502,
      "nf_Mark 22_W200": -2.7705294630152415,
      "rvol_100": 0.8185510966413584,
      "nf_Mark 38_W200": 0.2148753860917854
    }
  },
  "VELVETFRUIT_EXTRACT|50": {
    "features": [
      "cum_Mark 01",
      "ret_50",
      "cum_Mark 49",
      "nf_Mark 14_W200",
      "cum_Mark 67",
      "nf_Mark 55_W200",
      "nf_Mark 67_W200",
      "cum_Mark 55"
    ],
    "means": [
      -9.30345,
      0.110725,
      -167.57285,
      0.30315,
      261.45675,
      0.046,
      10.77205,
      1.1223
    ],
    "stds": [
      30.68913762488086,
      6.669004984831921,
      89.56715018943405,
      12.83021629214256,
      149.00177089462898,
      17.74966715280879,
      9.581361532510018,
      62.59734852879309
    ],
    "weights": [
      -0.667717619671839,
      -0.6466311467982047,
      -1.3891128729366646,
      -1.03940524801728,
      -1.0674796659721792,
      0.0030961249176757956,
      -0.21402649585769298,
      -0.8041187183169978
    ],
    "intercept": 0.11367499999999987,
    "ridge_oos_r2": 0.006218293402409092,
    "ridge_oos_sharpe": 0.8972710376497969,
    "ridge_oos_mean_pnl": 0.38090452261306534,
    "lgbm_avg_sharpe": 1.3201278112046966,
    "lgbm_avg_mean_pnl": 0.5607427973199329,
    "feature_importance_signed": {
      "cum_Mark 01": -0.667717619671839,
      "ret_50": -0.6466311467982047,
      "cum_Mark 49": -1.3891128729366646,
      "nf_Mark 14_W200": -1.03940524801728,
      "cum_Mark 67": -1.0674796659721792,
      "nf_Mark 55_W200": 0.0030961249176757956,
      "nf_Mark 67_W200": -0.21402649585769298,
      "cum_Mark 55": -0.8041187183169978
    }
  },
  "VELVETFRUIT_EXTRACT|200": {
    "features": [
      "cum_Mark 01",
      "cum_Mark 14",
      "cum_Mark 67",
      "cum_Mark 49",
      "nf_Mark 14_W200",
      "cum_Mark 22",
      "nf_Mark 14_W50",
      "cum_Mark 55"
    ],
    "means": [
      -9.30345,
      3.06435,
      261.45675,
      -167.57285,
      0.30315,
      -88.7671,
      0.0762,
      1.1223
    ],
    "stds": [
      30.68913762488086,
      45.66659073292896,
      149.00177089462898,
      89.56715018943405,
      12.83021629214256,
      56.90578755894528,
      6.259392428384626,
      62.59734852879309
    ],
    "weights": [
      -9.968360782018475,
      -10.226849062629833,
      9.037689822278931,
      2.525201885128779,
      -0.6133133928746886,
      6.8598823139219895,
      -1.6780568580243114,
      -19.014035448186217
    ],
    "intercept": 0.4939250000000007,
    "ridge_oos_r2": -0.2510224070749356,
    "ridge_oos_sharpe": 1.4397274659378538,
    "ridge_oos_mean_pnl": 1.156938775510204,
    "lgbm_avg_sharpe": 0.7040648922078786,
    "lgbm_avg_mean_pnl": 0.5680574829931974,
    "feature_importance_signed": {
      "cum_Mark 01": -9.968360782018475,
      "cum_Mark 14": -10.226849062629833,
      "cum_Mark 67": 9.037689822278931,
      "cum_Mark 49": 2.525201885128779,
      "nf_Mark 14_W200": -0.6133133928746886,
      "cum_Mark 22": 6.8598823139219895,
      "nf_Mark 14_W50": -1.6780568580243114,
      "cum_Mark 55": -19.014035448186217
    }
  },
  "VEV_4000|50": {
    "features": [
      "vfe_mid",
      "cum_Mark 14",
      "tp_roll",
      "nf_Mark 14_W200",
      "rvol_100",
      "rvol_20",
      "tp_dev",
      "ret_50"
    ],
    "means": [
      5251.892025,
      6.28025,
      0.01121631877020714,
      0.48575,
      1.403387424032565,
      1.329611262978266,
      -0.0009463187702071408,
      0.11095
    ],
    "stds": [
      16.225487016783994,
      15.332387614724745,
      0.05761609216116211,
      3.8216484591264144,
      0.2705532817299043,
      0.5648963071746517,
      0.8361078677004636,
      6.7256404981943
    ],
    "weights": [
      -1.165950954363133,
      0.184168584404246,
      -0.17752047254907855,
      -0.15290269414279026,
      -0.5664740522981125,
      0.25311074073972617,
      -0.6002640050703021,
      -0.2261804319358221
    ],
    "intercept": 0.1149499999999924,
    "ridge_oos_r2": 0.021005332011400313,
    "ridge_oos_sharpe": 2.8718206562065354,
    "ridge_oos_mean_pnl": 1.2130150753768845,
    "lgbm_avg_sharpe": 0.9237134331691355,
    "lgbm_avg_mean_pnl": 0.39450954773869346,
    "feature_importance_signed": {
      "vfe_mid": -1.165950954363133,
      "cum_Mark 14": 0.184168584404246,
      "tp_roll": -0.17752047254907855,
      "nf_Mark 14_W200": -0.15290269414279026,
      "rvol_100": -0.5664740522981125,
      "rvol_20": 0.25311074073972617,
      "tp_dev": -0.6002640050703021,
      "ret_50": -0.2261804319358221
    }
  },
  "VEV_4000|200": {
    "features": [
      "vfe_mid",
      "cum_Mark 14",
      "cum_Mark 38",
      "rvol_100",
      "tp_roll",
      "nf_Mark 14_W200",
      "nf_Mark 14_W50",
      "nf_Mark 38_W200"
    ],
    "means": [
      5251.892025,
      6.28025,
      -5.9988,
      1.4033828060686482,
      0.01121631877020714,
      0.48575,
      0.12085,
      -0.47575
    ],
    "stds": [
      16.225487016783994,
      15.332387614724745,
      15.036502205967748,
      0.2705529680216682,
      0.05761609216116211,
      3.8216484591264144,
      1.7772577981414277,
      3.817422159669382
    ],
    "weights": [
      -4.681799969338584,
      -16.13134917256875,
      -16.87447023518339,
      -1.2344276614863416,
      -0.12704878789751003,
      12.481914885028662,
      -0.22927958932570328,
      12.513405286550926
    ],
    "intercept": 0.4960749999999714,
    "ridge_oos_r2": 0.03597347820733876,
    "ridge_oos_sharpe": 5.196323647744513,
    "ridge_oos_mean_pnl": 4.00234693877551,
    "lgbm_avg_sharpe": 1.3778267237046766,
    "lgbm_avg_mean_pnl": 1.0654180272108844,
    "feature_importance_signed": {
      "vfe_mid": -4.681799969338584,
      "cum_Mark 14": -16.13134917256875,
      "cum_Mark 38": -16.87447023518339,
      "rvol_100": -1.2344276614863416,
      "tp_roll": -0.12704878789751003,
      "nf_Mark 14_W200": 12.481914885028662,
      "nf_Mark 14_W50": -0.22927958932570328,
      "nf_Mark 38_W200": 12.513405286550926
    }
  },
  "VEV_4500|50": {
    "features": [
      "vfe_mid",
      "tp_roll",
      "rvol_100",
      "rvol_20",
      "ret_50",
      "tp_dev",
      "cum_Mark 22",
      "ret_20"
    ],
    "means": [
      5251.892025,
      0.01197382520185751,
      1.2467129061962516,
      1.2066189703225512,
      0.110875,
      -0.0008238252018575089,
      -0.28145,
      0.048925
    ],
    "stds": [
      16.225487016783994,
      0.05628051504018993,
      0.18967838437474854,
      0.4020785265654667,
      6.687200030487305,
      0.7630626302617333,
      0.4497064580361426,
      4.254990464488138
    ],
    "weights": [
      -1.18912977786278,
      0.029493731500637558,
      -0.5889706227729712,
      0.18566699159351735,
      -0.2781123501156963,
      -0.41376159878885965,
      0.0023110010956614814,
      0.09421199129917374
    ],
    "intercept": 0.1145999999999927,
    "ridge_oos_r2": 0.003506732044459171,
    "ridge_oos_sharpe": 2.493989435156354,
    "ridge_oos_mean_pnl": 1.0526130653266332,
    "lgbm_avg_sharpe": 1.8026568411402415,
    "lgbm_avg_mean_pnl": 0.7611103852596314,
    "feature_importance_signed": {
      "vfe_mid": -1.18912977786278,
      "tp_roll": 0.029493731500637558,
      "rvol_100": -0.5889706227729712,
      "rvol_20": 0.18566699159351735,
      "ret_50": -0.2781123501156963,
      "tp_dev": -0.41376159878885965,
      "cum_Mark 22": 0.0023110010956614814,
      "ret_20": 0.09421199129917374
    }
  },
  "VEV_4500|200": {
    "features": [
      "vfe_mid",
      "tp_roll",
      "rvol_100",
      "cum_Mark 22",
      "ret_50",
      "rvol_20",
      "ret_20",
      "tp_dev"
    ],
    "means": [
      5251.892025,
      0.01197382520185751,
      1.2467052094926847,
      -0.28145,
      0.110875,
      1.20661563547829,
      0.048925,
      -0.0008238252018575089
    ],
    "stds": [
      16.225487016783994,
      0.05628051504018993,
      0.18967804938184402,
      0.4497064580361426,
      6.687200030487305,
      0.40207953497352933,
      4.254990464488138,
      0.7630626302617333
    ],
    "weights": [
      -4.718496858316952,
      -0.23467177376524426,
      -1.3959966318170507,
      0.3170855748915648,
      0.5683695802718897,
      0.18028392486277214,
      0.1718894192406674,
      -0.5797767933912953
    ],
    "intercept": 0.49552499999996946,
    "ridge_oos_r2": 0.01859261482301633,
    "ridge_oos_sharpe": 4.817159805656516,
    "ridge_oos_mean_pnl": 3.728265306122449,
    "lgbm_avg_sharpe": 2.373185193754333,
    "lgbm_avg_mean_pnl": 1.8759663265306123,
    "feature_importance_signed": {
      "vfe_mid": -4.718496858316952,
      "tp_roll": -0.23467177376524426,
      "rvol_100": -1.3959966318170507,
      "cum_Mark 22": 0.3170855748915648,
      "ret_50": 0.5683695802718897,
      "rvol_20": 0.18028392486277214,
      "ret_20": 0.1718894192406674,
      "tp_dev": -0.5797767933912953
    }
  },
  "VEV_5000|50": {
    "features": [
      "vfe_mid",
      "tp_roll",
      "tp_dev",
      "rvol_100",
      "rvol_20",
      "ret_50",
      "vfe_Itop",
      "time_premium"
    ],
    "means": [
      5251.892025,
      4.0317471656879755,
      -0.02291216568797508,
      0.9867962707175296,
      0.9774027991586958,
      0.098925,
      0.0005863183962927738,
      4.011825
    ],
    "stds": [
      16.225487016783994,
      1.3340797526217638,
      0.6889723352100144,
      0.07613626007842468,
      0.17596057459503936,
      6.28352022014269,
      0.3944752943487724,
      1.4746347589570339
    ],
    "weights": [
      -1.5758282864776503,
      -1.6466933371977732,
      -1.1775814626704262,
      -0.5950358356438384,
      0.2284232889002068,
      -0.36193420058155096,
      0.29772208903980024,
      1.1498394275635313
    ],
    "intercept": 0.10219999999998984,
    "ridge_oos_r2": -0.08076685689795782,
    "ridge_oos_sharpe": 1.5168874464777307,
    "ridge_oos_mean_pnl": 0.6153768844221106,
    "lgbm_avg_sharpe": 0.829033458053643,
    "lgbm_avg_mean_pnl": 0.33286984924623114,
    "feature_importance_signed": {
      "vfe_mid": -1.5758282864776503,
      "tp_roll": -1.6466933371977732,
      "tp_dev": -1.1775814626704262,
      "rvol_100": -0.5950358356438384,
      "rvol_20": 0.2284232889002068,
      "ret_50": -0.36193420058155096,
      "vfe_Itop": 0.29772208903980024,
      "time_premium": 1.1498394275635313
    }
  },
  "VEV_5000|200": {
    "features": [
      "tp_roll",
      "vfe_mid",
      "rvol_100",
      "cum_Mark 22",
      "tp_dev",
      "ret_50",
      "time_premium",
      "ret_20"
    ],
    "means": [
      4.031762165687975,
      5251.892025,
      0.9867950599412885,
      -0.28145,
      -0.02291716568797508,
      0.098925,
      4.011825,
      0.044
    ],
    "stds": [
      1.3340712017037766,
      16.225487016783994,
      0.07613619826549896,
      0.4497064580361426,
      0.6889724501299626,
      6.28352022014269,
      1.4746347589570339,
      3.9721894476402277
    ],
    "weights": [
      5.613319918828601,
      -5.816896589743955,
      -0.2723616601887524,
      0.23350455008564155,
      3.1528813777073843,
      0.6209926450050773,
      -8.150925487227271,
      0.21153927967317976
    ],
    "intercept": 0.44047499999996276,
    "ridge_oos_r2": -0.2315383656402008,
    "ridge_oos_sharpe": 2.3395203717164277,
    "ridge_oos_mean_pnl": 1.7966836734693878,
    "lgbm_avg_sharpe": 2.180545785157748,
    "lgbm_avg_mean_pnl": 1.6178561224489798,
    "feature_importance_signed": {
      "tp_roll": 5.613319918828601,
      "vfe_mid": -5.816896589743955,
      "rvol_100": -0.2723616601887524,
      "cum_Mark 22": 0.23350455008564155,
      "tp_dev": 3.1528813777073843,
      "ret_50": 0.6209926450050773,
      "time_premium": -8.150925487227271,
      "ret_20": 0.21153927967317976
    }
  },
  "VEV_5100|50": {
    "features": [
      "tp_roll",
      "vfe_mid",
      "tp_dev",
      "rvol_100",
      "time_premium",
      "ret_50",
      "rvol_20",
      "ret_20"
    ],
    "means": [
      14.316204396437632,
      5251.892025,
      -0.060262471888697905,
      0.8645333524092477,
      14.2623,
      0.078475,
      0.8572148694526522,
      0.0353
    ],
    "stds": [
      3.4478913407014447,
      16.225487016783994,
      1.3356290530177535,
      0.0693069999054875,
      3.618880865300454,
      5.56273351739057,
      0.15026633196223416,
      3.5184199460889887
    ],
    "weights": [
      -1.2290354917560935,
      -1.3547219916248365,
      -1.0341097521147624,
      -0.3304588088221912,
      0.8787968302289614,
      -0.6001221849157093,
      0.1620734171281319,
      0.06050910541600758
    ],
    "intercept": 0.08142499999999143,
    "ridge_oos_r2": -0.039405830768149075,
    "ridge_oos_sharpe": 1.3759916365328668,
    "ridge_oos_mean_pnl": 0.49678391959798995,
    "lgbm_avg_sharpe": 1.0061097605556386,
    "lgbm_avg_mean_pnl": 0.35593844221105536,
    "feature_importance_signed": {
      "tp_roll": -1.2290354917560935,
      "vfe_mid": -1.3547219916248365,
      "tp_dev": -1.0341097521147624,
      "rvol_100": -0.3304588088221912,
      "time_premium": 0.8787968302289614,
      "ret_50": -0.6001221849157093,
      "rvol_20": 0.1620734171281319,
      "ret_20": 0.06050910541600758
    }
  },
  "VEV_5100|200": {
    "features": [
      "vfe_mid",
      "tp_roll",
      "tp_dev",
      "rvol_100",
      "time_premium",
      "ret_20",
      "cum_Mark 22",
      "ret_50"
    ],
    "means": [
      5251.892025,
      14.316264396437633,
      -0.06027439643763175,
      0.8645309567442627,
      14.2623,
      0.0353,
      -0.28145,
      0.078475
    ],
    "stds": [
      16.225487016783994,
      3.4478651727056238,
      1.3356291132858453,
      0.06930682382027348,
      3.618880865300454,
      3.5184199460889887,
      0.4497064580361426,
      5.56273351739057
    ],
    "weights": [
      -4.722326579191165,
      6.420437404213724,
      1.9943876138456857,
      -0.421263229559108,
      -7.705290295993134,
      0.13746222780775044,
      0.28829714739915424,
      0.13401274773845448
    ],
    "intercept": 0.35257499999997344,
    "ridge_oos_r2": -0.10362341952479381,
    "ridge_oos_sharpe": 2.351727315350361,
    "ridge_oos_mean_pnl": 1.610561224489796,
    "lgbm_avg_sharpe": 1.34971940089523,
    "lgbm_avg_mean_pnl": 0.9117010204081634,
    "feature_importance_signed": {
      "vfe_mid": -4.722326579191165,
      "tp_roll": 6.420437404213724,
      "tp_dev": 1.9943876138456857,
      "rvol_100": -0.421263229559108,
      "time_premium": -7.705290295993134,
      "ret_20": 0.13746222780775044,
      "cum_Mark 22": 0.28829714739915424,
      "ret_50": 0.13401274773845448
    }
  },
  "VEV_5200|50": {
    "features": [
      "cum_Mark 14",
      "tp_roll",
      "rvol_100",
      "vfe_mid",
      "tp_dev",
      "ret_50",
      "cum_Mark 22",
      "time_premium"
    ],
    "means": [
      9.89955,
      42.800294820384934,
      0.6901281958252983,
      5251.892025,
      -0.11072232038493644,
      0.0488,
      -10.181,
      42.69525
    ],
    "stds": [
      9.622419644597967,
      6.942619775490102,
      0.07303649626127011,
      16.225487016783994,
      2.7947886640310937,
      4.210848319332068,
      9.69750684554515,
      7.318753476661002
    ],
    "weights": [
      0.11730528947931831,
      -0.2886327483553316,
      -0.05770170712628229,
      -1.2218664736313487,
      -0.6804074291011789,
      -0.5684737047101699,
      0.05508015413751426,
      -0.19386455243943002
    ],
    "intercept": 0.05154999999999217,
    "ridge_oos_r2": -0.07460774253381386,
    "ridge_oos_sharpe": 1.0532543775378522,
    "ridge_oos_mean_pnl": 0.27748743718592966,
    "lgbm_avg_sharpe": 1.5209824172349924,
    "lgbm_avg_mean_pnl": 0.4050400335008375,
    "feature_importance_signed": {
      "cum_Mark 14": 0.11730528947931831,
      "tp_roll": -0.2886327483553316,
      "rvol_100": -0.05770170712628229,
      "vfe_mid": -1.2218664736313487,
      "tp_dev": -0.6804074291011789,
      "ret_50": -0.5684737047101699,
      "cum_Mark 22": 0.05508015413751426,
      "time_premium": -0.19386455243943002
    }
  },
  "VEV_5200|200": {
    "features": [
      "cum_Mark 14",
      "tp_roll",
      "vfe_mid",
      "time_premium",
      "cum_Mark 22",
      "rvol_100",
      "tp_dev",
      "nf_Mark 14_W200"
    ],
    "means": [
      9.89955,
      42.80045982038494,
      5251.892025,
      42.69525,
      -10.181,
      0.6901281958252983,
      -0.11075732038493642,
      0.47
    ],
    "stds": [
      9.622419644597967,
      6.942578829045474,
      16.225487016783994,
      7.318753476661002,
      9.69750684554515,
      0.07303649626127011,
      2.7947881694878554,
      1.510430403236396
    ],
    "weights": [
      4.386453540688098,
      6.084264851453096,
      -3.8886781568025683,
      -7.360216960733255,
      3.8471199834714778,
      -0.049758436635494854,
      1.903116316936328,
      -0.40594082506303225
    ],
    "intercept": 0.22472499999997428,
    "ridge_oos_r2": -0.08818440002318861,
    "ridge_oos_sharpe": 1.9928726751730945,
    "ridge_oos_mean_pnl": 1.0010714285714286,
    "lgbm_avg_sharpe": 2.888537358257031,
    "lgbm_avg_mean_pnl": 1.4278683673469388,
    "feature_importance_signed": {
      "cum_Mark 14": 4.386453540688098,
      "tp_roll": 6.084264851453096,
      "vfe_mid": -3.8886781568025683,
      "time_premium": -7.360216960733255,
      "cum_Mark 22": 3.8471199834714778,
      "rvol_100": -0.049758436635494854,
      "tp_dev": 1.903116316936328,
      "nf_Mark 14_W200": -0.40594082506303225
    }
  },
  "VEV_5300|50": {
    "features": [
      "cum_Mark 01",
      "tp_roll",
      "time_premium",
      "cum_Mark 22",
      "vfe_mid",
      "nf_Mark 22_W200",
      "nf_Mark 01_W200",
      "tp_dev"
    ],
    "means": [
      58.3225,
      45.655776301808366,
      45.69365,
      -74.3147,
      5251.892025,
      -2.8854,
      2.13535,
      0.021721198191637415
    ],
    "stds": [
      32.53763196385187,
      6.065200975306514,
      6.430954415198564,
      44.03597352163424,
      16.225487016783994,
      2.9878030132482976,
      2.617065223248005,
      2.872500235297312
    ],
    "weights": [
      -0.08757066925823433,
      -1.883007833362641,
      1.7166341552216975,
      -0.15049393269113145,
      -0.2545874168158626,
      -0.19122892335136749,
      -0.1895872125400744,
      -0.8729902360010915
    ],
    "intercept": 0.023399999999996778,
    "ridge_oos_r2": -0.09683949407172254,
    "ridge_oos_sharpe": 0.9690233379537572,
    "ridge_oos_mean_pnl": 0.14482412060301508,
    "lgbm_avg_sharpe": 0.39526423074644373,
    "lgbm_avg_mean_pnl": 0.06530887772194305,
    "feature_importance_signed": {
      "cum_Mark 01": -0.08757066925823433,
      "tp_roll": -1.883007833362641,
      "time_premium": 1.7166341552216975,
      "cum_Mark 22": -0.15049393269113145,
      "vfe_mid": -0.2545874168158626,
      "nf_Mark 22_W200": -0.19122892335136749,
      "nf_Mark 01_W200": -0.1895872125400744,
      "tp_dev": -0.8729902360010915
    }
  },
  "VEV_5300|200": {
    "features": [
      "tp_roll",
      "time_premium",
      "cum_Mark 01",
      "cum_Mark 22",
      "tp_dev",
      "vfe_mid",
      "cum_Mark 14",
      "rvol_100"
    ],
    "means": [
      45.65600880180836,
      45.69365,
      58.3225,
      -74.3147,
      0.021751198191637424,
      5251.892025,
      15.71075,
      0.49731781648716167
    ],
    "stds": [
      6.065060423458056,
      6.430954415198564,
      32.53763196385187,
      44.03597352163424,
      2.8724988333524557,
      16.225487016783994,
      13.841635902781986,
      0.053619458500287424
    ],
    "weights": [
      0.37274980816797754,
      -0.2582077120493368,
      -0.9253714006448702,
      -0.8529795781113261,
      0.5033032420095985,
      -2.2666043193776497,
      0.6469544805953227,
      0.45936074860186993
    ],
    "intercept": 0.10479999999998521,
    "ridge_oos_r2": 0.1508956427642797,
    "ridge_oos_sharpe": 5.0279008473559905,
    "ridge_oos_mean_pnl": 1.375969387755102,
    "lgbm_avg_sharpe": 0.5566380836259958,
    "lgbm_avg_mean_pnl": 0.17346462585034014,
    "feature_importance_signed": {
      "tp_roll": 0.37274980816797754,
      "time_premium": -0.2582077120493368,
      "cum_Mark 01": -0.9253714006448702,
      "cum_Mark 22": -0.8529795781113261,
      "tp_dev": 0.5033032420095985,
      "vfe_mid": -2.2666043193776497,
      "cum_Mark 14": 0.6469544805953227,
      "rvol_100": 0.45936074860186993
    }
  }
}